<?xml version="1.0"?>
<opencv_storage>
<cascade>
  <stageType>BOOST</stageType>
  <featureType>HAAR</featureType>
  <height>24</height>
  <width>24</width>
  <stageParams>
    <boostType>GAB</boostType>
    <minHitRate>9.9500000476837158e-01</minHitRate>
    <maxFalseAlarm>5.0000000000000000e-01</maxFalseAlarm>
    <weightTrimRate>9.4999999999999996e-01</weightTrimRate>
    <maxDepth>1</maxDepth>
    <maxWeakCount>100</maxWeakCount></stageParams>
  <featureParams>
    <maxCatCount>0</maxCatCount>
    <featSize>1</featSize>
    <mode>BASIC</mode></featureParams>
  <stageNum>20</stageNum>
  <stages>
    <!-- stage 0 -->
    <_>
      <maxWeakCount>2</maxWeakCount>
      <stageThreshold>3.7500001490116119e-02</stageThreshold>
      <weakClassifiers>
        <_>
          <internalNodes>
            0 -1 44 -3.1573159503750503e-05</internalNodes>
          <leafValues>
            1. -9.6249997615814209e-01</leafValues></_>
        <_>
          <internalNodes>
            0 -1 39 -3.9781472878530622e-05</internalNodes>
          <leafValues>
            1. -9.5209562778472900e-01</leafValues></_></weakClassifiers></_>
    <!-- stage 1 -->
    <_>
      <maxWeakCount>3</maxWeakCount>
      <stageThreshold>-1.3881391286849976e+00</stageThreshold>
      <weakClassifiers>
        <_>
          <internalNodes>
            0 -1 21 -6.9347098469734192e-02</internalNodes>
          <leafValues>
            8.1818181276321411e-01 -9.0184050798416138e-01</leafValues></_>
        <_>
          <internalNodes>
            0 -1 10 -1.7792671918869019e-02</internalNodes>
          <leafValues>
            6.5825921297073364e-01 -8.0310082435607910e-01</leafValues></_>
        <_>
          <internalNodes>
            0 -1 48 -4.1007812251336873e-04</internalNodes>
          <leafValues>
            3.1680226325988770e-01 -9.6150738000869751e-01</leafValues></_></weakClassifiers></_>
    <!-- stage 2 -->
    <_>
      <maxWeakCount>3</maxWeakCount>
      <stageThreshold>-1.0284348726272583e+00</stageThreshold>
      <weakClassifiers>
        <_>
          <internalNodes>
            0 -1 31 -1.7162823677062988e-01</internalNodes>
          <leafValues>
            1. -8.2558137178421021e-01</leafValues></_>
        <_>
          <internalNodes>
            0 -1 22 -3.4860715270042419e-02</internalNodes>
          <leafValues>
            5.4266291856765747e-01 -7.4072897434234619e-01</leafValues></_>
        <_>
          <internalNodes>
            0 -1 50 -4.7534387558698654e-03</internalNodes>
          <leafValues>
            5.6815773248672485e-01 -7.4551641941070557e-01</leafValues></_></weakClassifiers></_>
    <!-- stage 3 -->
    <_>
      <maxWeakCount>3</maxWeakCount>
      <stageThreshold>-8.3916795253753662e-01</stageThreshold>
      <weakClassifiers>
        <_>
          <internalNodes>
            0 -1 9 -1.9538325071334839e-01</internalNodes>
          <leafValues>
            8.4615385532379150e-01 -8.1395345926284790e-01</leafValues></_>
        <_>
          <internalNodes>
            0 -1 28 2.7958704158663750e-03</internalNodes>
          <leafValues>
            -8.0352759361267090e-01 5.1841294765472412e-01</leafValues></_>
        <_>
          <internalNodes>
            0 -1 40 -1.4165144413709641e-02</internalNodes>
          <leafValues>
            7.7831310033798218e-01 -5.0059592723846436e-01</leafValues></_></weakClassifiers></_>
    <!-- stage 4 -->
    <_>
      <maxWeakCount>4</maxWeakCount>
      <stageThreshold>-1.2500809431076050e+00</stageThreshold>
      <weakClassifiers>
        <_>
          <internalNodes>
            0 -1 52 -2.6289489120244980e-02</internalNodes>
          <leafValues>
            1. -8.2558137178421021e-01</leafValues></_>
        <_>
          <internalNodes>
            0 -1 17 -3.6457865498960018e-03</internalNodes>
          <leafValues>
            3.9702838659286499e-01 -7.8523468971252441e-01</leafValues></_>
        <_>
          <internalNodes>
            0 -1 60 -1.5624942258000374e-02</internalNodes>
          <leafValues>
            9.5879805088043213e-01 -3.6871504783630371e-01</leafValues></_>
        <_>
          <internalNodes>
            0 -1 59 5.2100354805588722e-03</internalNodes>
          <leafValues>
            -4.5281285047531128e-01 8.0925285816192627e-01</leafValues></_></weakClassifiers></_>
    <!-- stage 5 -->
    <_>
      <maxWeakCount>3</maxWeakCount>
      <stageThreshold>-9.5622456073760986e-01</stageThreshold>
      <weakClassifiers>
        <_>
          <internalNodes>
            0 -1 57 4.3275006115436554e-02</internalNodes>
          <leafValues>
            -8.5628741979598999e-01 7.7777779102325439e-01</leafValues></_>
        <_>
          <internalNodes>
            0 -1 38 -3.2259080559015274e-02</internalNodes>
          <leafValues>
            6.9931066036224365e-01 -7.0079523324966431e-01</leafValues></_>
        <_>
          <internalNodes>
            0 -1 27 -8.1556454300880432e-02</internalNodes>
          <leafValues>
            6.0085815191268921e-01 -7.9866027832031250e-01</leafValues></_></weakClassifiers></_>
    <!-- stage 6 -->
    <_>
      <maxWeakCount>3</maxWeakCount>
      <stageThreshold>-7.9777884483337402e-01</stageThreshold>
      <weakClassifiers>
        <_>
          <internalNodes>
            0 -1 18 3.9221018552780151e-02</internalNodes>
          <leafValues>
            -8.5714286565780640e-01 8.8235294818878174e-01</leafValues></_>
        <_>
          <internalNodes>
            0 -1 32 -4.2097471654415131e-02</internalNodes>
          <leafValues>
            7.4102771282196045e-01 -8.1996631622314453e-01</leafValues></_>
        <_>
          <internalNodes>
            0 -1 43 8.0156892538070679e-02</internalNodes>
          <leafValues>
            -5.4671585559844971e-01 8.7933027744293213e-01</leafValues></_></weakClassifiers></_>
    <!-- stage 7 -->
    <_>
      <maxWeakCount>4</maxWeakCount>
      <stageThreshold>-1.1674140691757202e+00</stageThreshold>
      <weakClassifiers>
        <_>
          <internalNodes>
            0 -1 37 -2.0735466480255127e-01</internalNodes>
          <leafValues>
            1. -8.2558137178421021e-01</leafValues></_>
        <_>
          <internalNodes>
            0 -1 46 7.1369573473930359e-02</internalNodes>
          <leafValues>
            -6.6597050428390503e-01 9.5826143026351929e-01</leafValues></_>
        <_>
          <internalNodes>
            0 -1 5 -6.4615026116371155e-02</internalNodes>
          <leafValues>
            8.5596585273742676e-01 -3.9171594381332397e-01</leafValues></_>
        <_>
          <internalNodes>
            0 -1 23 6.1972625553607941e-02</internalNodes>
          <leafValues>
            -5.1360166072845459e-01 7.1585375070571899e-01</leafValues></_></weakClassifiers></_>
    <!-- stage 8 -->
    <_>
      <maxWeakCount>3</maxWeakCount>
      <stageThreshold>-7.2673499584197998e-01</stageThreshold>
      <weakClassifiers>
        <_>
          <internalNodes>
            0 -1 47 -7.3397487401962280e-02</internalNodes>
          <leafValues>
            6.0000002384185791e-01 -8.5454547405242920e-01</leafValues></_>
        <_>
          <internalNodes>
            0 -1 14 -5.7533286511898041e-02</internalNodes>
          <leafValues>
            6.6617709398269653e-01 -6.2450426816940308e-01</leafValues></_>
        <_>
          <internalNodes>
            0 -1 1 9.3536451458930969e-02</internalNodes>
          <leafValues>
            -5.3836661577224731e-01 8.5233509540557861e-01</leafValues></_></weakClassifiers></_>
    <!-- stage 9 -->
    <_>
      <maxWeakCount>2</maxWeakCount>
      <stageThreshold>-7.1408230066299438e-01</stageThreshold>
      <weakClassifiers>
        <_>
          <internalNodes>
            0 -1 49 1.5969878435134888e-01</internalNodes>
          <leafValues>
            -8.2248520851135254e-01 6.2500000000000000e-01</leafValues></_>
        <_>
          <internalNodes>
            0 -1 41 -4.4516578782349825e-04</internalNodes>
          <leafValues>
            -1. 1.0840287804603577e-01</leafValues></_></weakClassifiers></_>
    <!-- stage 10 -->
    <_>
      <maxWeakCount>2</maxWeakCount>
      <stageThreshold>-3.7060475349426270e-01</stageThreshold>
      <weakClassifiers>
        <_>
          <internalNodes>
            0 -1 2 -2.4248062074184418e-01</internalNodes>
          <leafValues>
            5.6521737575531006e-01 -8.7654322385787964e-01</leafValues></_>
        <_>
          <internalNodes>
            0 -1 42 7.8196421964094043e-04</internalNodes>
          <leafValues>
            5.0593847036361694e-01 -1.</leafValues></_></weakClassifiers></_>
    <!-- stage 11 -->
    <_>
      <maxWeakCount>3</maxWeakCount>
      <stageThreshold>-1.3989100456237793e+00</stageThreshold>
      <weakClassifiers>
        <_>
          <internalNodes>
            0 -1 0 -6.1170506477355957e-01</internalNodes>
          <leafValues>
            1. -7.9428571462631226e-01</leafValues></_>
        <_>
          <internalNodes>
            0 -1 26 2.7230056002736092e-04</internalNodes>
          <leafValues>
            1.9566074013710022e-01 -9.0751844644546509e-01</leafValues></_>
        <_>
          <internalNodes>
            0 -1 13 -8.9538487372919917e-04</internalNodes>
          <leafValues>
            -1. 3.0289414525032043e-01</leafValues></_></weakClassifiers></_>
    <!-- stage 12 -->
    <_>
      <maxWeakCount>4</maxWeakCount>
      <stageThreshold>-1.0688387155532837e+00</stageThreshold>
      <weakClassifiers>
        <_>
          <internalNodes>
            0 -1 6 -2.9833304882049561e-01</internalNodes>
          <leafValues>
            1. -8.1502890586853027e-01</leafValues></_>
        <_>
          <internalNodes>
            0 -1 15 8.8152755051851273e-04</internalNodes>
          <leafValues>
            2.8071120381355286e-01 -9.1429066658020020e-01</leafValues></_>
        <_>
          <internalNodes>
            0 -1 45 4.0083151543512940e-04</internalNodes>
          <leafValues>
            4.9862799048423767e-01 -8.7661737203598022e-01</leafValues></_>
        <_>
          <internalNodes>
            0 -1 12 1.3279878767207265e-03</internalNodes>
          <leafValues>
            3.4209632873535156e-01 -1.</leafValues></_></weakClassifiers></_>
    <!-- stage 13 -->
    <_>
      <maxWeakCount>3</maxWeakCount>
      <stageThreshold>-1.1734321117401123e+00</stageThreshold>
      <weakClassifiers>
        <_>
          <internalNodes>
            0 -1 36 2.6723527908325195e-01</internalNodes>
          <leafValues>
            -8.1286549568176270e-01 7.1428573131561279e-01</leafValues></_>
        <_>
          <internalNodes>
            0 -1 16 -6.8128528073430061e-04</internalNodes>
          <leafValues>
            -7.4712067842483521e-01 3.5714370012283325e-01</leafValues></_>
        <_>
          <internalNodes>
            0 -1 51 1.9508277546265163e-05</internalNodes>
          <leafValues>
            -7.1771031618118286e-01 4.3434610962867737e-01</leafValues></_></weakClassifiers></_>
    <!-- stage 14 -->
    <_>
      <maxWeakCount>4</maxWeakCount>
      <stageThreshold>-8.5129588842391968e-01</stageThreshold>
      <weakClassifiers>
        <_>
          <internalNodes>
            0 -1 56 7.6241428032517433e-03</internalNodes>
          <leafValues>
            -7.9761904478073120e-01 2.9411765933036804e-01</leafValues></_>
        <_>
          <internalNodes>
            0 -1 34 -6.1047032475471497e-02</internalNodes>
          <leafValues>
            5.2502954006195068e-01 -6.2099963426589966e-01</leafValues></_>
        <_>
          <internalNodes>
            0 -1 30 8.0037501174956560e-04</internalNodes>
          <leafValues>
            3.4660488367080688e-01 -8.3644396066665649e-01</leafValues></_>
        <_>
          <internalNodes>
            0 -1 7 -8.3955121226608753e-04</internalNodes>
          <leafValues>
            -8.3675408363342285e-01 3.1203001737594604e-01</leafValues></_></weakClassifiers></_>
    <!-- stage 15 -->
    <_>
      <maxWeakCount>2</maxWeakCount>
      <stageThreshold>-5.3695207834243774e-01</stageThreshold>
      <weakClassifiers>
        <_>
          <internalNodes>
            0 -1 19 2.4008108302950859e-02</internalNodes>
          <leafValues>
            -7.7401131391525269e-01 1.</leafValues></_>
        <_>
          <internalNodes>
            0 -1 25 -2.2883596830070019e-03</internalNodes>
          <leafValues>
            -1. 2.3705923557281494e-01</leafValues></_></weakClassifiers></_>
    <!-- stage 16 -->
    <_>
      <maxWeakCount>3</maxWeakCount>
      <stageThreshold>-1.0810786485671997e+00</stageThreshold>
      <weakClassifiers>
        <_>
          <internalNodes>
            0 -1 8 -3.7939332425594330e-02</internalNodes>
          <leafValues>
            1. -7.7401131391525269e-01</leafValues></_>
        <_>
          <internalNodes>
            0 -1 54 7.5878924690186977e-03</internalNodes>
          <leafValues>
            -7.0147049427032471e-01 5.0819206237792969e-01</leafValues></_>
        <_>
          <internalNodes>
            0 -1 24 7.9942663433030248e-05</internalNodes>
          <leafValues>
            -8.1525939702987671e-01 4.6970558166503906e-01</leafValues></_></weakClassifiers></_>
    <!-- stage 17 -->
    <_>
      <maxWeakCount>3</maxWeakCount>
      <stageThreshold>-9.8895478248596191e-01</stageThreshold>
      <weakClassifiers>
        <_>
          <internalNodes>
            0 -1 4 -9.3844377994537354e-01</internalNodes>
          <leafValues>
            1. -7.6404494047164917e-01</leafValues></_>
        <_>
          <internalNodes>
            0 -1 55 4.6727014705538750e-03</internalNodes>
          <leafValues>
            -7.1018821001052856e-01 5.5672740936279297e-01</leafValues></_>
        <_>
          <internalNodes>
            0 -1 53 -2.3783826691214927e-05</internalNodes>
          <leafValues>
            4.8527839779853821e-01 -7.4687850475311279e-01</leafValues></_></weakClassifiers></_>
    <!-- stage 18 -->
    <_>
      <maxWeakCount>4</maxWeakCount>
      <stageThreshold>-6.1139190196990967e-01</stageThreshold>
      <weakClassifiers>
        <_>
          <internalNodes>
            0 -1 58 -1.0452062822878361e-02</internalNodes>
          <leafValues>
            1. -8.1502890586853027e-01</leafValues></_>
        <_>
          <internalNodes>
            0 -1 20 2.0050647435709834e-05</internalNodes>
          <leafValues>
            1.8186232447624207e-01 -9.0643495321273804e-01</leafValues></_>
        <_>
          <internalNodes>
            0 -1 3 4.5304920058697462e-04</internalNodes>
          <leafValues>
            4.3890771269798279e-01 -7.5271004438400269e-01</leafValues></_>
        <_>
          <internalNodes>
            0 -1 61 -9.3824239447712898e-03</internalNodes>
          <leafValues>
            9.9029189348220825e-01 -4.1713306307792664e-01</leafValues></_></weakClassifiers></_>
    <!-- stage 19 -->
    <_>
      <maxWeakCount>4</maxWeakCount>
      <stageThreshold>-5.1830267906188965e-01</stageThreshold>
      <weakClassifiers>
        <_>
          <internalNodes>
            0 -1 11 -6.8051445484161377e-01</internalNodes>
          <leafValues>
            1. -7.6404494047164917e-01</leafValues></_>
        <_>
          <internalNodes>
            0 -1 33 1.6528557986021042e-02</internalNodes>
          <leafValues>
            -4.6894782781600952e-01 8.2411503791809082e-01</leafValues></_>
        <_>
          <internalNodes>
            0 -1 29 -1.4738718164153397e-04</internalNodes>
          <leafValues>
            3.6521589756011963e-01 -9.2530167102813721e-01</leafValues></_>
        <_>
          <internalNodes>
            0 -1 35 -4.3713085353374481e-02</internalNodes>
          <leafValues>
            -8.5525918006896973e-01 3.4947419166564941e-01</leafValues></_></weakClassifiers></_></stages>
  <features>
    <_>
      <rects>
        <_>
          0 0 24 18 -1.</_>
        <_>
          8 0 8 18 3.</_></rects>
      <tilted>0</tilted></_>
    <_>
      <rects>
        <_>
          0 0 10 24 -1.</_>
        <_>
          0 8 10 8 3.</_></rects>
      <tilted>0</tilted></_>
    <_>
      <rects>
        <_>
          0 0 24 20 -1.</_>
        <_>
          0 10 24 10 2.</_></rects>
      <tilted>0</tilted></_>
    <_>
      <rects>
        <_>
          0 1 12 3 -1.</_>
        <_>
          0 2 12 1 3.</_></rects>
      <tilted>0</tilted></_>
    <_>
      <rects>
        <_>
          0 3 24 20 -1.</_>
        <_>
          8 3 8 20 3.</_></rects>
      <tilted>0</tilted></_>
    <_>
      <rects>
        <_>
          0 4 12 9 -1.</_>
        <_>
          6 4 6 9 2.</_></rects>
      <tilted>0</tilted></_>
    <_>
      <rects>
        <_>
          0 4 16 20 -1.</_>
        <_>
          8 4 8 20 2.</_></rects>
      <tilted>0</tilted></_>
    <_>
      <rects>
        <_>
          0 6 2 14 -1.</_>
        <_>
          0 6 1 7 2.</_>
        <_>
          1 13 1 7 2.</_></rects>
      <tilted>0</tilted></_>
    <_>
      <rects>
        <_>
          0 8 6 15 -1.</_>
        <_>
          2 8 2 15 3.</_></rects>
      <tilted>0</tilted></_>
    <_>
      <rects>
        <_>
          0 8 12 13 -1.</_>
        <_>
          6 8 6 13 2.</_></rects>
      <tilted>0</tilted></_>
    <_>
      <rects>
        <_>
          0 8 23 4 -1.</_>
        <_>
          0 10 23 2 2.</_></rects>
      <tilted>0</tilted></_>
    <_>
      <rects>
        <_>
          0 10 24 14 -1.</_>
        <_>
          8 10 8 14 3.</_></rects>
      <tilted>0</tilted></_>
    <_>
      <rects>
        <_>
          0 13 1 4 -1.</_>
        <_>
          0 15 1 2 2.</_></rects>
      <tilted>0</tilted></_>
    <_>
      <rects>
        <_>
          0 13 1 9 -1.</_>
        <_>
          0 16 1 3 3.</_></rects>
      <tilted>0</tilted></_>
    <_>
      <rects>
        <_>
          0 13 20 9 -1.</_>
        <_>
          10 13 10 9 2.</_></rects>
      <tilted>0</tilted></_>
    <_>
      <rects>
        <_>
          0 14 1 4 -1.</_>
        <_>
          0 16 1 2 2.</_></rects>
      <tilted>0</tilted></_>
    <_>
      <rects>
        <_>
          0 16 1 8 -1.</_>
        <_>
          0 20 1 4 2.</_></rects>
      <tilted>0</tilted></_>
    <_>
      <rects>
        <_>
          0 17 8 1 -1.</_>
        <_>
          4 17 4 1 2.</_></rects>
      <tilted>0</tilted></_>
    <_>
      <rects>
        <_>
          0 20 21 4 -1.</_>
        <_>
          0 22 21 2 2.</_></rects>
      <tilted>0</tilted></_>
    <_>
      <rects>
        <_>
          0 22 19 2 -1.</_>
        <_>
          0 23 19 1 2.</_></rects>
      <tilted>0</tilted></_>
    <_>
      <rects>
        <_>
          0 23 6 1 -1.</_>
        <_>
          3 23 3 1 2.</_></rects>
      <tilted>0</tilted></_>
    <_>
      <rects>
        <_>
          1 0 18 8 -1.</_>
        <_>
          1 4 18 4 2.</_></rects>
      <tilted>0</tilted></_>
    <_>
      <rects>
        <_>
          1 4 9 20 -1.</_>
        <_>
          4 4 3 20 3.</_></rects>
      <tilted>0</tilted></_>
    <_>
      <rects>
        <_>
          2 8 22 16 -1.</_>
        <_>
          13 8 11 16 2.</_></rects>
      <tilted>0</tilted></_>
    <_>
      <rects>
        <_>
          2 13 8 3 -1.</_>
        <_>
          2 14 8 1 3.</_></rects>
      <tilted>0</tilted></_>
    <_>
      <rects>
        <_>
          2 22 6 2 -1.</_>
        <_>
          5 22 3 2 2.</_></rects>
      <tilted>0</tilted></_>
    <_>
      <rects>
        <_>
          3 0 13 2 -1.</_>
        <_>
          3 1 13 1 2.</_></rects>
      <tilted>0</tilted></_>
    <_>
      <rects>
        <_>
          4 0 19 22 -1.</_>
        <_>
          4 11 19 11 2.</_></rects>
      <tilted>0</tilted></_>
    <_>
      <rects>
        <_>
          4 2 9 3 -1.</_>
        <_>
          4 3 9 1 3.</_></rects>
      <tilted>0</tilted></_>
    <_>
      <rects>
        <_>
          4 9 9 2 -1.</_>
        <_>
          4 10 9 1 2.</_></rects>
      <tilted>0</tilted></_>
    <_>
      <rects>
        <_>
          5 0 9 1 -1.</_>
        <_>
          8 0 3 1 3.</_></rects>
      <tilted>0</tilted></_>
    <_>
      <rects>
        <_>
          5 0 15 23 -1.</_>
        <_>
          10 0 5 23 3.</_></rects>
      <tilted>0</tilted></_>
    <_>
      <rects>
        <_>
          5 0 7 12 -1.</_>
        <_>
          5 6 7 6 2.</_></rects>
      <tilted>0</tilted></_>
    <_>
      <rects>
        <_>
          5 11 4 7 -1.</_>
        <_>
          7 11 2 7 2.</_></rects>
      <tilted>0</tilted></_>
    <_>
      <rects>
        <_>
          5 15 13 9 -1.</_>
        <_>
          5 18 13 3 3.</_></rects>
      <tilted>0</tilted></_>
    <_>
      <rects>
        <_>
          6 3 4 20 -1.</_>
        <_>
          6 13 4 10 2.</_></rects>
      <tilted>0</tilted></_>
    <_>
      <rects>
        <_>
          6 4 18 16 -1.</_>
        <_>
          15 4 9 16 2.</_></rects>
      <tilted>0</tilted></_>
    <_>
      <rects>
        <_>
          6 5 18 17 -1.</_>
        <_>
          12 5 6 17 3.</_></rects>
      <tilted>0</tilted></_>
    <_>
      <rects>
        <_>
          7 0 16 9 -1.</_>
        <_>
          15 0 8 9 2.</_></rects>
      <tilted>0</tilted></_>
    <_>
      <rects>
        <_>
          7 8 2 8 -1.</_>
        <_>
          7 12 2 4 2.</_></rects>
      <tilted>0</tilted></_>
    <_>
      <rects>
        <_>
          7 17 6 6 -1.</_>
        <_>
          7 19 6 2 3.</_></rects>
      <tilted>0</tilted></_>
    <_>
      <rects>
        <_>
          8 0 3 2 -1.</_>
        <_>
          9 0 1 2 3.</_></rects>
      <tilted>0</tilted></_>
    <_>
      <rects>
        <_>
          8 0 3 3 -1.</_>
        <_>
          9 0 1 3 3.</_></rects>
      <tilted>0</tilted></_>
    <_>
      <rects>
        <_>
          8 2 14 20 -1.</_>
        <_>
          8 2 7 10 2.</_>
        <_>
          15 12 7 10 2.</_></rects>
      <tilted>0</tilted></_>
    <_>
      <rects>
        <_>
          9 4 3 2 -1.</_>
        <_>
          9 5 3 1 2.</_></rects>
      <tilted>0</tilted></_>
    <_>
      <rects>
        <_>
          10 0 6 2 -1.</_>
        <_>
          10 1 6 1 2.</_></rects>
      <tilted>0</tilted></_>
    <_>
      <rects>
        <_>
          10 1 12 18 -1.</_>
        <_>
          14 1 4 18 3.</_></rects>
      <tilted>0</tilted></_>
    <_>
      <rects>
        <_>
          10 1 9 10 -1.</_>
        <_>
          10 6 9 5 2.</_></rects>
      <tilted>0</tilted></_>
    <_>
      <rects>
        <_>
          10 3 3 2 -1.</_>
        <_>
          10 4 3 1 2.</_></rects>
      <tilted>0</tilted></_>
    <_>
      <rects>
        <_>
          10 6 14 11 -1.</_>
        <_>
          17 6 7 11 2.</_></rects>
      <tilted>0</tilted></_>
    <_>
      <rects>
        <_>
          13 1 11 4 -1.</_>
        <_>
          13 3 11 2 2.</_></rects>
      <tilted>0</tilted></_>
    <_>
      <rects>
        <_>
          13 9 2 2 -1.</_>
        <_>
          13 9 1 1 2.</_>
        <_>
          14 10 1 1 2.</_></rects>
      <tilted>0</tilted></_>
    <_>
      <rects>
        <_>
          14 6 6 13 -1.</_>
        <_>
          16 6 2 13 3.</_></rects>
      <tilted>0</tilted></_>
    <_>
      <rects>
        <_>
          14 6 5 2 -1.</_>
        <_>
          14 7 5 1 2.</_></rects>
      <tilted>0</tilted></_>
    <_>
      <rects>
        <_>
          14 9 6 6 -1.</_>
        <_>
          14 9 3 3 2.</_>
        <_>
          17 12 3 3 2.</_></rects>
      <tilted>0</tilted></_>
    <_>
      <rects>
        <_>
          14 16 6 8 -1.</_>
        <_>
          14 16 3 4 2.</_>
        <_>
          17 20 3 4 2.</_></rects>
      <tilted>0</tilted></_>
    <_>
      <rects>
        <_>
          15 6 9 1 -1.</_>
        <_>
          18 6 3 1 3.</_></rects>
      <tilted>0</tilted></_>
    <_>
      <rects>
        <_>
          16 3 8 14 -1.</_>
        <_>
          20 3 4 14 2.</_></rects>
      <tilted>0</tilted></_>
    <_>
      <rects>
        <_>
          16 6 3 17 -1.</_>
        <_>
          17 6 1 17 3.</_></rects>
      <tilted>0</tilted></_>
    <_>
      <rects>
        <_>
          17 8 6 11 -1.</_>
        <_>
          19 8 2 11 3.</_></rects>
      <tilted>0</tilted></_>
    <_>
      <rects>
        <_>
          18 11 6 7 -1.</_>
        <_>
          20 11 2 7 3.</_></rects>
      <tilted>0</tilted></_>
    <_>
      <rects>
        <_>
          20 7 3 17 -1.</_>
        <_>
          21 7 1 17 3.</_></rects>
      <tilted>0</tilted></_></features></cascade>
</opencv_storage>
